{
  "weights": [
    [
      0.001999596832320094,
      0.0006676126504316926,
      0.0008532449137419462,
      0.0008376702317036688,
      0.0,
      0.0005263140192255378,
      2.453763723373413,
      0.0,
      0.04424131661653519,
      0.1304343044757843
    ],
    [
      0.0025681895203888416,
      0.002852796809747815,
      -0.004515416454523802,
      -0.004239691887050867,
      0.0,
      -0.00200711190700531,
      0.8117185831069946,
      0.0,
      -0.09914196282625198,
      -0.00734436372295022
    ],
    [
      -0.0004947967827320099,
      -0.0012893659295514226,
      0.008078236132860184,
      0.00307371374219656,
      0.0,
      0.0008561414433643222,
      0.2846575677394867,
      0.0,
      -0.14321939647197723,
      -0.04798883944749832
    ],
    [
      0.000148961044033058,
      -0.00044784878264181316,
      -0.0004695164388976991,
      0.001581434509716928,
      0.0,
      0.0005423657712526619,
      -0.5978044867515564,
      0.0,
      -0.2348000407218933,
      -0.14439767599105835
    ],
    [
      -0.00029615225503221154,
      -0.0023898037616163492,
      -0.0009279178339056671,
      0.00043867964996024966,
      0.0,
      0.00037975184386596084,
      0.24155010282993317,
      0.0,
      -0.14692771434783936,
      -0.0647667646408081
    ],
    [
      -0.0009469814249314368,
      -0.0003894939727615565,
      -0.0008129893685691059,
      0.00022878931486047804,
      0.0,
      0.0029044770635664463,
      -0.9286140203475952,
      0.0,
      -0.279222697019577,
      -0.2121589630842209
    ]
  ],
  "biases": [
    0.5218621492385864,
    -0.6355080604553223,
    -1.0064855813980103,
    -1.7332539558410645,
    -1.0376691818237305,
    -2.05368709564209
  ],
  "labels": [
    "hiring_intent",
    "tech_adoption",
    "growth_signal",
    "budget_cycle",
    "leadership_change",
    "product_launch"
  ],
  "num_features": 10,
  "trained": true
}